<?xml version="1.0"?>
<opencv_storage>
<stage12>
  <maxWeakCount>26</maxWeakCount>
  <stageThreshold>-1.3581362962722778e+00</stageThreshold>
  <weakClassifiers>
    <_>
      <internalNodes>
        0 -1 10867 -4.0007241070270538e-02</internalNodes>
      <leafValues>
        2.8384879231452942e-01 -4.5737266540527344e-01</leafValues></_>
    <_>
      <internalNodes>
        0 -1 61957 4.3356097303330898e-03</internalNodes>
      <leafValues>
        -2.5918236374855042e-01 3.8679143786430359e-01</leafValues></_>
    <_>
      <internalNodes>
        0 -1 64864 6.7748583853244781e-02</internalNodes>
      <leafValues>
        -1.7723985016345978e-01 4.5831426978111267e-01</leafValues></_>
    <_>
      <internalNodes>
        0 -1 42165 -2.4945838376879692e-03</internalNodes>
      <leafValues>
        6.0426312685012817e-01 -1.4398656785488129e-01</leafValues></_>
    <_>
      <internalNodes>
        0 -1 36662 -2.4917130358517170e-03</internalNodes>
      <leafValues>
        5.7411235570907593e-01 -9.6677839756011963e-02</leafValues></_>
    <_>
      <internalNodes>
        0 -1 48998 -7.8554288484156132e-04</internalNodes>
      <leafValues>
        1.7928677797317505e-01 -4.1763648390769958e-01</leafValues></_>
    <_>
      <internalNodes>
        0 -1 42547 -1.9459433387964964e-03</internalNodes>
      <leafValues>
        5.0160539150238037e-01 -1.3257342576980591e-01</leafValues></_>
    <_>
      <internalNodes>
        0 -1 48409 7.7353389933705330e-03</internalNodes>
      <leafValues>
        -5.4101204872131348e-01 1.5898437798023224e-01</leafValues></_>
    <_>
      <internalNodes>
        0 -1 32718 -4.5553937554359436e-02</internalNodes>
      <leafValues>
        -3.2297489047050476e-01 2.4357944726943970e-01</leafValues></_>
    <_>
      <internalNodes>
        0 -1 43847 -2.0792151335626841e-03</internalNodes>
      <leafValues>
        4.3697003275156021e-02 -8.0588924884796143e-01</leafValues></_>
    <_>
      <internalNodes>
        0 -1 7523 -1.4308007434010506e-02</internalNodes>
      <leafValues>
        -9.1402940452098846e-02 6.2358605861663818e-01</leafValues></_>
    <_>
      <internalNodes>
        0 -1 62129 -6.1239306814968586e-03</internalNodes>
      <leafValues>
        3.6507657170295715e-01 -1.3712432980537415e-01</leafValues></_>
    <_>
      <internalNodes>
        0 -1 77498 5.0985574489459395e-04</internalNodes>
      <leafValues>
        1.3059069216251373e-01 -3.8645994663238525e-01</leafValues></_>
    <_>
      <internalNodes>
        0 -1 47310 1.2762418016791344e-02</internalNodes>
      <leafValues>
        1.0187564790248871e-01 -5.3842180967330933e-01</leafValues></_>
    <_>
      <internalNodes>
        0 -1 42214 -4.9151917919516563e-03</internalNodes>
      <leafValues>
        5.7984638214111328e-01 -9.8725393414497375e-02</leafValues></_>
    <_>
      <internalNodes>
        0 -1 52093 2.4620750918984413e-03</internalNodes>
      <leafValues>
        -1.8037231266498566e-01 4.1339150071144104e-01</leafValues></_>
    <_>
      <internalNodes>
        0 -1 49016 -2.2157944738864899e-02</internalNodes>
      <leafValues>
        -4.1428732872009277e-01 1.3216637074947357e-01</leafValues></_>
    <_>
      <internalNodes>
        0 -1 67644 -4.4058803468942642e-03</internalNodes>
      <leafValues>
        3.3096459507942200e-01 -1.6705897450447083e-01</leafValues></_>
    <_>
      <internalNodes>
        0 -1 51803 3.4669069573283195e-03</internalNodes>
      <leafValues>
        1.2713868916034698e-01 -4.3484216928482056e-01</leafValues></_>
    <_>
      <internalNodes>
        0 -1 73052 -6.8684096913784742e-04</internalNodes>
      <leafValues>
        3.2451617717742920e-01 -1.6288945078849792e-01</leafValues></_>
    <_>
      <internalNodes>
        0 -1 61625 1.0765958577394485e-03</internalNodes>
      <leafValues>
        -1.0295507311820984e-01 5.2947956323623657e-01</leafValues></_>
    <_>
      <internalNodes>
        0 -1 72702 3.5109906457364559e-03</internalNodes>
      <leafValues>
        -1.3961985707283020e-01 3.4520030021667480e-01</leafValues></_>
    <_>
      <internalNodes>
        0 -1 44493 -1.5602688072249293e-03</internalNodes>
      <leafValues>
        2.9730445146560669e-01 -1.6995558142662048e-01</leafValues></_>
    <_>
      <internalNodes>
        0 -1 75023 -1.3256302336230874e-03</internalNodes>
      <leafValues>
        -5.4711347818374634e-01 9.4565726816654205e-02</leafValues></_>
    <_>
      <internalNodes>
        0 -1 58818 -8.4831967949867249e-02</internalNodes>
      <leafValues>
        3.6444365978240967e-01 -1.5359191596508026e-01</leafValues></_>
    <_>
      <internalNodes>
        0 -1 46073 -3.1829830259084702e-03</internalNodes>
      <leafValues>
        -5.2064180374145508e-01 1.0070747882127762e-01</leafValues></_></weakClassifiers></stage12>
</opencv_storage>
