<?xml version="1.0"?>
<opencv_storage>
<stage8>
  <maxWeakCount>15</maxWeakCount>
  <stageThreshold>-1.2697787284851074e+00</stageThreshold>
  <weakClassifiers>
    <_>
      <internalNodes>
        0 -1 32293 1.2105883657932281e-01</internalNodes>
      <leafValues>
        -3.9223560690879822e-01 4.0685820579528809e-01</leafValues></_>
    <_>
      <internalNodes>
        0 -1 57006 -5.2136264741420746e-02</internalNodes>
      <leafValues>
        -7.7870845794677734e-01 1.6486962139606476e-01</leafValues></_>
    <_>
      <internalNodes>
        0 -1 46180 -6.7112008109688759e-03</internalNodes>
      <leafValues>
        3.9218437671661377e-01 -3.0460348725318909e-01</leafValues></_>
    <_>
      <internalNodes>
        0 -1 44681 -4.4593340717256069e-03</internalNodes>
      <leafValues>
        4.6241587400436401e-01 -2.3990578949451447e-01</leafValues></_>
    <_>
      <internalNodes>
        0 -1 64897 -3.7443675100803375e-03</internalNodes>
      <leafValues>
        5.3905969858169556e-01 -2.3115828633308411e-01</leafValues></_>
    <_>
      <internalNodes>
        0 -1 69796 -2.1404903382062912e-03</internalNodes>
      <leafValues>
        7.1358388662338257e-01 -1.1279381066560745e-01</leafValues></_>
    <_>
      <internalNodes>
        0 -1 67038 -2.4641868658363819e-03</internalNodes>
      <leafValues>
        7.7842563390731812e-01 -9.7162358462810516e-02</leafValues></_>
    <_>
      <internalNodes>
        0 -1 52657 -1.3543510809540749e-02</internalNodes>
      <leafValues>
        -5.6810641288757324e-01 1.9162079691886902e-01</leafValues></_>
    <_>
      <internalNodes>
        0 -1 49072 -1.6338939312845469e-03</internalNodes>
      <leafValues>
        1.2993574142456055e-01 -6.9149357080459595e-01</leafValues></_>
    <_>
      <internalNodes>
        0 -1 63863 -1.7782778013497591e-03</internalNodes>
      <leafValues>
        5.6268888711929321e-01 -1.7527820169925690e-01</leafValues></_>
    <_>
      <internalNodes>
        0 -1 53216 2.6958733797073364e-03</internalNodes>
      <leafValues>
        1.7153841257095337e-01 -4.3388995528221130e-01</leafValues></_>
    <_>
      <internalNodes>
        0 -1 56734 1.8526759231463075e-03</internalNodes>
      <leafValues>
        -2.0272721350193024e-01 3.6446273326873779e-01</leafValues></_>
    <_>
      <internalNodes>
        0 -1 43321 -3.2143950462341309e-02</internalNodes>
      <leafValues>
        -7.6552093029022217e-01 1.1539519578218460e-01</leafValues></_>
    <_>
      <internalNodes>
        0 -1 53015 1.1230310425162315e-02</internalNodes>
      <leafValues>
        5.2705895155668259e-02 -8.4931886196136475e-01</leafValues></_>
    <_>
      <internalNodes>
        0 -1 56913 1.6140243969857693e-03</internalNodes>
      <leafValues>
        -1.6079969704151154e-01 5.2518874406814575e-01</leafValues></_></weakClassifiers></stage8>
</opencv_storage>
